|--- cp <= 0.50
|   |--- ca <= 0.50
|   |   |--- thal <= 2.50
|   |   |   |--- exang <= 0.50
|   |   |   |   |--- age <= 60.00
|   |   |   |   |   |--- class: 1
|   |   |   |   |--- age >  60.00
|   |   |   |   |   |--- oldpeak <= 1.10
|   |   |   |   |   |   |--- class: 0
|   |   |   |   |   |--- oldpeak >  1.10
|   |   |   |   |   |   |--- class: 1
|   |   |   |--- exang >  0.50
|   |   |   |   |--- thalach <= 146.00
|   |   |   |   |   |--- chol <= 225.00
|   |   |   |   |   |   |--- class: 0
|   |   |   |   |   |--- chol >  225.00
|   |   |   |   |   |   |--- class: 0
|   |   |   |   |--- thalach >  146.00
|   |   |   |   |   |--- oldpeak <= 0.40
|   |   |   |   |   |   |--- class: 1
|   |   |   |   |   |--- oldpeak >  0.40
|   |   |   |   |   |   |--- class: 0
|   |   |--- thal >  2.50
|   |   |   |--- oldpeak <= 0.65
|   |   |   |   |--- chol <= 237.50
|   |   |   |   |   |--- age <= 48.00
|   |   |   |   |   |   |--- class: 0
|   |   |   |   |   |--- age >  48.00
|   |   |   |   |   |   |--- class: 1
|   |   |   |   |--- chol >  237.50
|   |   |   |   |   |--- class: 0
|   |   |   |--- oldpeak >  0.65
|   |   |   |   |--- class: 0
|   |--- ca >  0.50
|   |   |--- oldpeak <= 0.45
|   |   |   |--- thalach <= 159.50
|   |   |   |   |--- restecg <= 0.50
|   |   |   |   |   |--- chol <= 296.50
|   |   |   |   |   |   |--- class: 0
|   |   |   |   |   |--- chol >  296.50
|   |   |   |   |   |   |--- class: 0
|   |   |   |   |--- restecg >  0.50
|   |   |   |   |   |--- class: 1
|   |   |   |--- thalach >  159.50
|   |   |   |   |--- class: 0
|   |   |--- oldpeak >  0.45
|   |   |   |--- chol <= 301.00
|   |   |   |   |--- class: 0
|   |   |   |--- chol >  301.00
|   |   |   |   |--- chol <= 320.00
|   |   |   |   |   |--- class: 0
|   |   |   |   |--- chol >  320.00
|   |   |   |   |   |--- class: 0
|--- cp >  0.50
|   |--- age <= 56.50
|   |   |--- thal <= 2.50
|   |   |   |--- thalach <= 152.50
|   |   |   |   |--- sex <= 0.50
|   |   |   |   |   |--- class: 1
|   |   |   |   |--- sex >  0.50
|   |   |   |   |   |--- age <= 50.00
|   |   |   |   |   |   |--- class: 0
|   |   |   |   |   |--- age >  50.00
|   |   |   |   |   |   |--- class: 1
|   |   |   |--- thalach >  152.50
|   |   |   |   |--- class: 1
|   |   |--- thal >  2.50
|   |   |   |--- age <= 50.50
|   |   |   |   |--- oldpeak <= 0.90
|   |   |   |   |   |--- class: 1
|   |   |   |   |--- oldpeak >  0.90
|   |   |   |   |   |--- chol <= 230.00
|   |   |   |   |   |   |--- class: 0
|   |   |   |   |   |--- chol >  230.00
|   |   |   |   |   |   |--- class: 0
|   |   |   |--- age >  50.50
|   |   |   |   |--- thalach <= 171.50
|   |   |   |   |   |--- class: 1
|   |   |   |   |--- thalach >  171.50
|   |   |   |   |   |--- class: 0
|   |--- age >  56.50
|   |   |--- sex <= 0.50
|   |   |   |--- age <= 62.50
|   |   |   |   |--- ca <= 0.50
|   |   |   |   |   |--- class: 1
|   |   |   |   |--- ca >  0.50
|   |   |   |   |   |--- chol <= 290.50
|   |   |   |   |   |   |--- class: 0
|   |   |   |   |   |--- chol >  290.50
|   |   |   |   |   |   |--- class: 0
|   |   |   |--- age >  62.50
|   |   |   |   |--- class: 1
|   |   |--- sex >  0.50
|   |   |   |--- chol <= 279.00
|   |   |   |   |--- ca <= 0.50
|   |   |   |   |   |--- chol <= 271.50
|   |   |   |   |   |   |--- class: 1
|   |   |   |   |   |--- chol >  271.50
|   |   |   |   |   |   |--- class: 0
|   |   |   |   |--- ca >  0.50
|   |   |   |   |   |--- oldpeak <= 1.90
|   |   |   |   |   |   |--- class: 0
|   |   |   |   |   |--- oldpeak >  1.90
|   |   |   |   |   |   |--- class: 0
|   |   |   |--- chol >  279.00
|   |   |   |   |--- class: 0
